digraph Tree {
node [shape=box, style="filled, rounded", color="black", fontname=helvetica] ;
edge [fontname=helvetica] ;
0 [label="worst area <= 810.5\ngini = 0.48\nsamples = 241\nvalue = [161, 237]\nclass = benign", fillcolor="#399de552"] ;
1 [label="worst compactness <= 0.39\ngini = 0.15\nsamples = 143\nvalue = [20, 224]\nclass = benign", fillcolor="#399de5e8"] ;
0 -> 1 [labeldistance=2.5, labelangle=45, headlabel="True"] ;
2 [label="worst concave points <= 0.14\ngini = 0.06\nsamples = 134\nvalue = [7, 221]\nclass = benign", fillcolor="#399de5f7"] ;
1 -> 2 ;
3 [label="radius error <= 0.96\ngini = 0.04\nsamples = 132\nvalue = [4, 220]\nclass = benign", fillcolor="#399de5fa"] ;
2 -> 3 ;
4 [label="mean area <= 626.85\ngini = 0.02\nsamples = 131\nvalue = [2, 220]\nclass = benign", fillcolor="#399de5fd"] ;
3 -> 4 ;
5 [label="gini = 0.0\nsamples = 123\nvalue = [0, 210]\nclass = benign", fillcolor="#399de5ff"] ;
4 -> 5 ;
6 [label="mean texture <= 20.11\ngini = 0.28\nsamples = 8\nvalue = [2, 10]\nclass = benign", fillcolor="#399de5cc"] ;
4 -> 6 ;
7 [label="gini = 0.0\nsamples = 5\nvalue = [0, 9]\nclass = benign", fillcolor="#399de5ff"] ;
6 -> 7 ;
8 [label="worst symmetry <= 0.25\ngini = 0.44\nsamples = 3\nvalue = [2, 1]\nclass = malignant", fillcolor="#e581397f"] ;
6 -> 8 ;
9 [label="gini = 0.0\nsamples = 1\nvalue = [0, 1]\nclass = benign", fillcolor="#399de5ff"] ;
8 -> 9 ;
10 [label="gini = 0.0\nsamples = 2\nvalue = [2, 0]\nclass = malignant", fillcolor="#e58139ff"] ;
8 -> 10 ;
11 [label="gini = 0.0\nsamples = 1\nvalue = [2, 0]\nclass = malignant", fillcolor="#e58139ff"] ;
3 -> 11 ;
12 [label="mean perimeter <= 71.03\ngini = 0.38\nsamples = 2\nvalue = [3, 1]\nclass = malignant", fillcolor="#e58139aa"] ;
2 -> 12 ;
13 [label="gini = 0.0\nsamples = 1\nvalue = [0, 1]\nclass = benign", fillcolor="#399de5ff"] ;
12 -> 13 ;
14 [label="gini = 0.0\nsamples = 1\nvalue = [3, 0]\nclass = malignant", fillcolor="#e58139ff"] ;
12 -> 14 ;
15 [label="worst concave points <= 0.13\ngini = 0.3\nsamples = 9\nvalue = [13, 3]\nclass = malignant", fillcolor="#e58139c4"] ;
1 -> 15 ;
16 [label="gini = 0.0\nsamples = 1\nvalue = [0, 3]\nclass = benign", fillcolor="#399de5ff"] ;
15 -> 16 ;
17 [label="gini = 0.0\nsamples = 8\nvalue = [13, 0]\nclass = malignant", fillcolor="#e58139ff"] ;
15 -> 17 ;
18 [label="worst concavity <= 0.22\ngini = 0.15\nsamples = 98\nvalue = [141, 13]\nclass = malignant", fillcolor="#e58139e7"] ;
0 -> 18 [labeldistance=2.5, labelangle=-45, headlabel="False"] ;
19 [label="gini = 0.0\nsamples = 7\nvalue = [0, 9]\nclass = benign", fillcolor="#399de5ff"] ;
18 -> 19 ;
20 [label="concave points error <= 0.01\ngini = 0.05\nsamples = 91\nvalue = [141, 4]\nclass = malignant", fillcolor="#e58139f8"] ;
18 -> 20 ;
21 [label="compactness error <= 0.01\ngini = 0.47\nsamples = 6\nvalue = [5, 3]\nclass = malignant", fillcolor="#e5813966"] ;
20 -> 21 ;
22 [label="gini = 0.0\nsamples = 1\nvalue = [3, 0]\nclass = malignant", fillcolor="#e58139ff"] ;
21 -> 22 ;
23 [label="worst perimeter <= 113.75\ngini = 0.48\nsamples = 5\nvalue = [2, 3]\nclass = benign", fillcolor="#399de555"] ;
21 -> 23 ;
24 [label="gini = 0.0\nsamples = 3\nvalue = [0, 3]\nclass = benign", fillcolor="#399de5ff"] ;
23 -> 24 ;
25 [label="gini = 0.0\nsamples = 2\nvalue = [2, 0]\nclass = malignant", fillcolor="#e58139ff"] ;
23 -> 25 ;
26 [label="mean symmetry <= 0.15\ngini = 0.01\nsamples = 85\nvalue = [136, 1]\nclass = malignant", fillcolor="#e58139fd"] ;
20 -> 26 ;
27 [label="worst texture <= 36.34\ngini = 0.5\nsamples = 2\nvalue = [1, 1]\nclass = malignant", fillcolor="#e5813900"] ;
26 -> 27 ;
28 [label="gini = 0.0\nsamples = 1\nvalue = [0, 1]\nclass = benign", fillcolor="#399de5ff"] ;
27 -> 28 ;
29 [label="gini = 0.0\nsamples = 1\nvalue = [1, 0]\nclass = malignant", fillcolor="#e58139ff"] ;
27 -> 29 ;
30 [label="gini = 0.0\nsamples = 83\nvalue = [135, 0]\nclass = malignant", fillcolor="#e58139ff"] ;
26 -> 30 ;
}